
\data\
ngram 1=27
ngram 2=185

\1-grams:
-1.942008 0
-99 1 -0.2219728
-0.8336686 2 0.05214638
-1.151958 3 0.09100461
-1.817069 4 -0.2235331
-1.765917 5 -0.2688453
-1.464887 6 -0.2463177
-0.907246 7 -0.03342378
-1.640978 8 -0.01533982
-1.942008 9 -0.1895304
-1.464887 10 -0.257869
-1.09691 11 0.09498411
-2.243038 12 -0.4550625
-2.419129 13 -0.2436285
-1.39794 14 -0.2810797
-1.765917 15 -0.2559155
-1.243038 16 -0.4076858
-1.305186 17 -0.3553877
-1.574031 18 -0.3054878
-1.288795 19 -0.1391792
-1.288795 20 -0.1176395
-1.140376 21 -0.1961511
-1.765917 22 -0.3469115
-2.021189 23 -0.3781382
-1.875061 24 -0.1606543
-2.419129 25 -0.2892916
-1.875061 26 -0.5273229

\2-grams:
-0.9542425 1 2
-0.9542425 1 10
-0.9542425 1 12
-0.6532125 1 21
-0.9408786 2 3
-1.681241 2 4
-1.50515 2 5
-1.681241 2 6
-1.681241 2 7
-1.50515 2 8
-1.681241 2 9
-1.380211 2 10
-1.380211 2 11
-1.982271 2 14
-1.50515 2 15
-1.982271 2 16
-1.137173 2 17
-1.20412 2 18
-1.50515 2 19
-1.50515 2 20
-0.90309 2 21
-1.681241 2 22
-1.982271 2 23
-1.380211 2 24
-1.414973 3 2
-1.716003 3 4
-1.414973 3 6
-1.238882 3 7
-1.716003 3 9
-1.716003 3 11
-1.716003 3 12
-1.716003 3 13
-0.8709053 3 14
-1.716003 3 15
-1.017033 3 16
-1.716003 3 18
-1.113943 3 19
-1.238882 3 20
-1.414973 3 21
-1.716003 3 26
-1.079181 4 3
-1.079181 4 4
-0.7781513 4 7
-0.7781513 4 11
-1.079181 4 26
-1.113943 5 3
-0.6368221 5 11
-0.8129134 5 17
-1.113943 5 21
-1.113943 5 26
-1.380211 6 0
-0.4259687 6 2
-1.380211 6 6
-0.90309 6 7
-1.380211 6 11
-1.380211 6 14
-1.380211 6 17
-0.7323937 7 2
-1.306425 7 3
-1.607455 7 4
-1.908485 7 5
-0.908485 7 6
-1.607455 7 7
-1.908485 7 8
-1.130334 7 14
-1.607455 7 15
-1.130334 7 16
-1.908485 7 18
-1.306425 7 19
-1.209515 7 20
-1.908485 7 21
-1.607455 7 23
-1.908485 7 24
-1.908485 7 25
-0.9777236 8 2
-1.278754 8 7
-0.9777236 8 8
-0.9777236 8 11
-1.278754 8 17
-1.278754 8 20
-1.278754 8 21
-1.278754 8 22
-0.6532125 9 7
-0.9542425 9 11
-0.9542425 9 16
-0.9542425 9 19
-1.361728 10 2
-1.060698 10 3
-0.3617278 10 7
-1.060698 10 11
-1.361728 10 16
-1.361728 10 17
-1.447158 11 2
-1.146128 11 3
-1.447158 11 5
-1.748188 11 6
-1.271067 11 7
-1.748188 11 8
-1.748188 11 9
-1.748188 11 14
-0.845098 11 16
-1.447158 11 17
-1.748188 11 18
-1.748188 11 19
-0.90309 11 20
-0.9700368 11 21
-1.748188 11 23
-0.1760913 12 17
-0.30103 13 7
-0.8293038 14 2
-0.5862657 14 7
-0.8293038 14 11
-1.431364 14 14
-1.431364 14 17
-1.130334 14 20
-1.431364 14 26
-0.8129134 15 3
-1.113943 15 4
-0.6368221 15 7
-1.113943 15 11
-1.113943 15 15
-1.556303 16 0
-0.6532125 16 2
-1.255273 16 5
-0.8573325 16 7
-0.7112045 16 11
-1.079181 16 20
-1.079181 16 21
-0.7533277 17 2
-0.9294189 17 8
-1.531479 17 10
-1.531479 17 14
-1.531479 17 15
-0.9294189 17 16
-0.8325089 17 19
-1.230449 17 22
-1.531479 17 24
-0.5797836 18 3
-0.9777236 18 7
-1.278754 18 14
-0.9777236 18 17
-0.9777236 18 18
-1.278754 18 19
-0.69897 19 2
-0.9420081 19 3
-1.544068 19 6
-0.69897 19 7
-1.544068 19 9
-1.544068 19 11
-1.544068 19 16
-1.544068 19 17
-1.066947 19 21
-0.544068 20 2
-1.544068 20 3
-1.544068 20 7
-1.066947 20 11
-1.544068 20 17
-1.066947 20 19
-1.544068 20 20
-0.9420081 20 21
-1.243038 20 22
-1.681241 21 0
-1.079181 21 2
-0.9822713 21 7
-0.6398485 21 10
-0.9822713 21 11
-1.681241 21 14
-1.079181 21 17
-1.681241 21 20
-1.380211 21 21
-1.681241 21 22
-1.380211 21 26
-1.079181 22 7
-0.7781513 22 16
-1.079181 22 18
-0.4771213 22 19
-0.4771213 23 7
-0.4771213 23 11
-1 24 2
-1 24 3
-0.69897 24 7
-0.69897 24 11
-0.30103 25 18
-0.60206 26 0
-0.30103 26 2

\end\
